D1 -0.17343246113994173 -1.0954394791291493 -0.06693566365946661 -0.17343246113994246 -1.0954394791291493 -0.06693566365946678 -0.5457949799158254 -4.500574003409698 -0.1190690290506678 -0.5457949799158248 -4.500574003409695 -0.1190690290506685
D2 -0.12445849808669295 -0.7985541673947735 -0.048794802616658584 -0.124458498086694 -0.7985541673947729 -0.048794802616658486 -0.6460100662987146 -3.254536703333668 -0.08610335592351415 -0.6460100662987136 -3.2545367033336685 -0.08610335592351484
D3 -0.2270112264297677 -2.035025173724347 -0.1243480476669045 -0.22701122642976765 -2.0350251737243483 -0.12434804766690477 0.9441854023016516 -5.8859255413432034 -0.15572045671092336 0.9441854023016476 -5.885925541343203 -0.15572045671092308
D4 -0.19990226956552407 -3.7737457753753647 -0.23059071976999454 -0.19990226956552404 -3.773745775375365 -0.23059071976999504 -0.11159420400761698 -5.236987323750631 -0.13855188145272712 -0.11159420400761604 -5.23698732375063 -0.13855188145272732
D5 0.2771758112237358 -4.123897424890795 -0.2519863636995021 0.2771758112237357 -4.123897424890798 -0.25198636369950256 -0.3097833522818101 -3.8636952411540335 -0.1022195036818337 -0.3097833522818107 -3.8636952411540353 -0.10221950368183304
D6 -0.10824256919831876 -3.840394976825423 -0.23466324829980464 -0.10824256919831783 -3.840394976825423 -0.23466324829980464 0.02143092334624233 -5.288446203206995 -0.1399132986426822 0.02143092334624268 -5.2884462032069965 -0.1399132986426819
D7 -0.12578049922991366 -4.2320514975817565 -0.2585950032190482 -0.125780499229914 -4.232051497581754 -0.2585950032190483 -0.4258791450781191 -4.412380959620828 -0.11673575776460217 -0.4258791450781193 -4.412380959620828 -0.1167357577646041
D8 -0.26443378318356925 -3.1159697496998806 -0.1903980156939315 -0.2644337831835705 -3.11596974969988 -0.19039801569393155 -0.519132537254685 -1.18386837447732 -0.0313209065701437 -0.519132537254685 -1.18386837447732 -0.031320906570142616
D9 0.3086357709610361 -4.368821106252565 -0.26695216461339866 0.30863577096103645 -4.368821106252565 -0.26695216461339943 -0.42219705575556254 -4.028043214911622 -0.10656756098450852 -0.4221970557555624 -4.028043214911623 -0.10656756098450933
D10 0.04125489045836831 -3.7573013684545766 -0.2295859017844287 0.041254890458367804 -3.7573013684545775 -0.22958590178442784 0.7838982539443552 -5.7795672427968325 -0.15290659800538975 0.7838982539443533 -5.7795672427968325 -0.15290659800538836
D11 -0.17932979881060246 -2.8104023032232788 -0.1717266420467998 -0.17932979881060213 -2.8104023032232788 -0.17172664204679972 1.2656589952580684 -6.170920801981662 -0.16326040804658826 1.2656589952580717 -6.170920801981661 -0.16326040804658715
D12 0.100847689665686 -4.576746852031357 -0.27965724604487874 0.10084768966568652 -4.576746852031358 -0.27965724604487874 -0.027107801832374632 -0.3569574341440839 -0.009443812070138984 -0.02710780183237464 -0.3569574341440839 -0.009443812070138934
D13 0.24765187042025624 -2.999688431695332 -0.18329276949811302 0.2476518704202562 -2.9996884316953327 -0.18329276949811293 0.2481211883083528 -2.179275516849178 -0.057655805599139125 0.2481211883083537 -2.179275516849178 -0.05765580559913839
D14 0.040986008003941435 -3.477321876488465 -0.2124780528682195 0.040986008003941685 -3.477321876488464 -0.21247805286821905 -0.2501511593788709 -1.7079972537581594 -0.04518747485812339 -0.25015115937887106 -1.7079972537581594 -0.04518747485812183
D15 0.14133729523647745 -4.594285385202885 -0.2807289194506822 0.14133729523647853 -4.594285385202887 -0.2807289194506821 0.7676475866714696 -5.739231142913576 -0.15183944962717133 0.7676475866714713 -5.739231142913575 -0.1518394496271701
D16 -0.04969484627427991 -1.2522483676535043 -0.07651730392445419 -0.04969484627428029 -1.2522483676535043 -0.07651730392445448 0.09062308176861757 -0.8828072773338518 -0.023355910884115545 0.09062308176861768 -0.8828072773338518 -0.02335591088411596
D17 0.1285226285803159 -4.715810756297222 -0.2881545979300888 0.12852262858031735 -4.715810756297222 -0.2881545979300893 -0.5419414446548473 -3.3009033222976583 -0.08733005018434048 -0.5419414446548471 -3.3009033222976583 -0.08733005018434073
D18 0.19015150798248576 -4.718224697899663 -0.2883020992629083 0.19015150798248667 -4.7182246978996645 -0.2883020992629088 -0.5041760318178601 -2.252078000838139 -0.059581897931908726 -0.5041760318178597 -2.2520780008381385 -0.05958189793191075
D19 -0.14948434359776014 -1.8355447413058263 -0.1121590081212185 -0.14948434359776006 -1.8355447413058263 -0.1121590081212186 -0.7883369660591685 -3.1412420921673467 -0.08310598729053065 -0.7883369660591679 -3.1412420921673463 -0.0831059872905301
D20 0.029660242563279145 -0.7859878286757298 -0.04802694986170975 0.029660242563279583 -0.7859878286757304 -0.048026949861709904 1.2299226082843808 -6.091614298499034 -0.16116224271036048 1.2299226082843826 -6.091614298499036 -0.16116224271035987
D21 -0.19560389472750775 -2.1160103647652986 -0.12929656158501174 -0.1956038947275076 -2.1160103647653004 -0.1292965615850121 -0.6840004323628797 -2.0956053103453303 -0.05544219234862049 -0.6840004323628794 -2.0956053103453294 -0.05544219234862088
D22 -0.1404038894425347 -2.5535560488243183 -0.15603232499487998 -0.14040388944253465 -2.5535560488243187 -0.15603232499488 -0.7427839693681689 -3.2199240106330875 -0.08518762834975169 -0.7427839693681685 -3.21992401063309 -0.08518762834975102
D24 0.009323758892820498 -0.6081322891699575 -0.037159276385311635 0.00932375889282078 -0.6081322891699578 -0.037159276385311635 0.9816510214504978 -5.880362011259569 -0.15557326568047836 0.981651021450499 -5.880362011259567 -0.15557326568047886
D25 0.04489492854264455 -1.1740006155046705 -0.0717360582968023 0.04489492854264414 -1.1740006155046705 -0.07173605829680248 -0.1298872882477321 -1.3222611845767471 -0.03498228343310445 -0.12988728824773224 -1.322261184576747 -0.034982283433104513
D26 0.046890414266895504 -4.493632540395514 -0.27457863447852576 0.046890414266895865 -4.493632540395517 -0.274578634478526 -0.07646607260915135 -4.965878804034725 -0.13137932342224534 -0.07646607260915111 -4.965878804034725 -0.1313793234222448
D27 0.12859136676294192 -3.2763177100955274 -0.20019590717950952 0.12859136676294286 -3.2763177100955283 -0.2001959071795088 -0.11977147612749413 -0.2097574086498745 -0.0055494279096844545 -0.11977147612749428 -0.20975740864987452 -0.005549427909685068
D28 -0.09837218516532127 -0.37398979059185095 -0.022852248172606816 -0.09837218516532116 -0.3739897905918512 -0.02285224817260689 -0.24985585602640356 -4.231994731705232 -0.11196338584143266 -0.2498558560264036 -4.231994731705232 -0.1119633858414338
D29 -0.006556478249018272 -2.342590320730788 -0.14314148867905768 -0.006556478249018754 -2.342590320730788 -0.14314148867905804 0.590056603682111 -5.555570960561645 -0.14698046062458087 0.5900566036821119 -5.555570960561641 -0.14698046062457945
D30 -0.16850880915611974 -4.202165188249924 -0.25676883209086443 -0.16850880915612007 -4.202165188249927 -0.2567688320908647 -0.9056573292086524 -3.9355469279108735 -0.10412044133363182 -0.9056573292086532 -3.935546927910873 -0.10412044133363203
D31 -0.3316482313751294 -2.8538177610387185 -0.17437949739602124 -0.3316482313751289 -2.8538177610387194 -0.1743794973960211 -0.5863531057089115 -2.9364163250699256 -0.07768703290951956 -0.5863531057089116 -2.936416325069924 -0.07768703290951758
D32 -0.22359009907261787 -1.3178813195504295 -0.08052773560676252 -0.2235900990726191 -1.317881319550429 -0.08052773560676252 -0.3211728719427516 -0.7940621607973264 -0.021008033735337592 -0.3211728719427513 -0.7940621607973259 -0.021008033735337397
D33 -0.19785935056469228 -2.425155483580144 -0.14818654509318954 -0.1978593505646916 -2.425155483580145 -0.14818654509318982 -0.015876441194297156 -0.5783813551809204 -0.015301894009570252 -0.015876441194297042 -0.5783813551809205 -0.015301894009570159
D34 0.0793025696432549 -4.969696593034709 -0.3036680218111357 0.07930256964325476 -4.969696593034709 -0.3036680218111353 -0.8471781263446793 -2.299904905073454 -0.06084722609793749 -0.8471781263446793 -2.299904905073454 -0.06084722609793675
D35 0.2646605601065962 -5.456202051269283 -0.3333954201214219 0.2646605601065974 -5.456202051269283 -0.33339542012142104 0.1870613620988192 -4.617748350785289 -0.12216904157375633 0.18706136209882065 -4.617748350785289 -0.1221690415737572
D36 0.16151196779314972 -4.1450445351705465 -0.2532785353694342 0.16151196779315022 -4.145044535170548 -0.25327853536943395 -0.4120969766708061 -0.9841256547471644 -0.02603643137204693 -0.4120969766708062 -0.984125654747164 -0.026036431372047617
D37 0.09160915072661624 -4.810042273097068 -0.29391251448760664 0.09160915072661592 -4.810042273097068 -0.29391251448760675 -0.8331782655069281 -3.713449150959809 -0.09824453158615426 -0.8331782655069278 -3.71344915095981 -0.09824453158615537
D38 -0.29469107781842324 -3.1103631004245886 -0.19005542735628506 -0.2946910778184247 -3.1103631004245886 -0.19005542735628472 -0.3773298642950204 -4.748568974031125 -0.1256300855601197 -0.3773298642950209 -4.748568974031127 -0.12563008556012073
D39 -0.2379580592321399 -3.0295122328829853 -0.1851151211326646 -0.23795805923214064 -3.0295122328829858 -0.18511512113266468 -0.4867266641676549 -1.0312710773647331 -0.027283729981292925 -0.4867266641676545 -1.0312710773647322 -0.02728372998129267
D40 -0.3057715931147799 -3.0478174701953225 -0.1862336431791033 -0.3057715931147805 -3.0478174701953216 -0.18623364317910346 0.21936177348059924 -5.124517960322715 -0.13557634591189135 0.2193617734805983 -5.124517960322712 -0.1355763459118911
D41 -0.2646923713647384 -3.4942849718390065 -0.21351456475832334 -0.2646923713647382 -3.4942849718390065 -0.2135145647583236 0.4663613125946393 -5.614014188091085 -0.1485266585876051 0.4663613125946387 -5.614014188091082 -0.14852665858760494
D42 0.05863524148531207 -0.5789231970731181 -0.035374485895610534 0.0586352414853115 -0.5789231970731179 -0.035374485895610874 -0.5738839060837142 -3.563141398093391 -0.09426792811756864 -0.5738839060837141 -3.5631413980933933 -0.09426792811756823
D43 0.43194524740261614 -5.082245568791472 -0.3105452072056782 0.4319452474026158 -5.082245568791472 -0.31054520720567763 0.02907066450517857 -0.1706090001053472 -0.004513701579944074 0.029070664505178364 -0.1706090001053472 -0.004513701579944853
D44 0.04103094151295905 -1.724357170287134 -0.10536500991445598 0.04103094151295837 -1.7243571702871343 -0.10536500991445616 0.09138262643630457 -0.3440280227250981 -0.009101746266379484 0.09138262643630476 -0.3440280227250982 -0.009101746266379468
D45 -0.02533955515134326 -1.105114573678961 -0.06752685001617402 -0.02533955515134312 -1.1051145736789605 -0.06752685001617408 -0.9568240632896772 -2.89980742371248 -0.07671849282197639 -0.9568240632896764 -2.8998074237124785 -0.07671849282197747
D46 -0.2812487319237428 -2.1457882576212053 -0.13111610803980586 -0.2812487319237433 -2.1457882576212053 -0.13111610803980586 -0.16065978518404894 -4.934372722420091 -0.1305457856236864 -0.16065978518404894 -4.934372722420089 -0.13054578562368765
D47 -0.25562207164983464 -2.658598220631674 -0.1624508151224651 -0.2556220716498356 -2.6585982206316734 -0.16245081512246476 -0.7804092240093174 -3.471132139935096 -0.09183369350121083 -0.7804092240093169 -3.4711321399350967 -0.09183369350121026
D48 -0.00014997566520407574 -3.0291336834934373 -0.18509199027505055 -0.00014997566520413773 -3.0291336834934377 -0.18509199027505 -0.3844458975947129 -0.6416277317221124 -0.01697516604998733 -0.3844458975947128 -0.6416277317221121 -0.016975166049987073
D49 0.14032650356641208 -4.235469646063266 -0.25880386554458584 0.1403265035664128 -4.235469646063268 -0.25880386554458595 0.04494188038900019 -1.7355957365746806 -0.04591763162251239 0.04494188038899993 -1.7355957365746806 -0.04591763162251344
D50 -0.009198775925866182 -2.2089498328059807 -0.13497552887803482 -0.009198775925866756 -2.20894983280598 -0.1349755288780353 -0.38217391917304094 -1.5971268846148567 -0.04225424296495019 -0.3821739191730408 -1.5971268846148572 -0.0422542429649498
